{
  "input_layer": [
    {
      "weights": [
        -0.7046344012440728
      ],
      "bias": 0.6537653953604708
    },
    {
      "weights": [
        -1.3261272085974087
      ],
      "bias": 0.3138728416105372
    },
    {
      "weights": [
        -0.45291057989040556
      ],
      "bias": 0.49777546223182745
    },
    {
      "weights": [
        -0.01952140502843229
      ],
      "bias": -0.563947143244071
    },
    {
      "weights": [
        -0.9209867878038848
      ],
      "bias": 0.7910762009880018
    },
    {
      "weights": [
        -0.3947434494619987
      ],
      "bias": 0.3567881966783833
    },
    {
      "weights": [
        0.802897369295849
      ],
      "bias": 0.3402975277200314
    },
    {
      "weights": [
        -1.2251127868294596
      ],
      "bias": 0.3807334307996122
    }
  ],
  "hidden_layers": [
    [
      {
        "weights": [
          -1.9949886148395184,
          -0.3383834650726424,
          0.5103725761750235,
          -0.5815337008218798,
          -0.3915492298708182,
          1.5181281265061268,
          -1.3764382051660806,
          -1.9980621422768934
        ],
        "bias": 0.00951034683682153
      },
      {
        "weights": [
          -3.99357903132504,
          0.5766208718680734,
          -0.3074255276441007,
          0.5239765504223652,
          -3.599354955634816,
          -0.6913042546740805,
          1.1087612990563847,
          -0.07255985651190454
        ],
        "bias": -0.35039968239415076
      },
      {
        "weights": [
          -0.005270821136613089,
          0.34344500181323745,
          0.3756238948350595,
          -1.4218175254247187,
          1.1321455874577568,
          -1.6895057887190774,
          -0.5253641759593755,
          0.882565183486458
        ],
        "bias": 0.1149197928218752
      },
      {
        "weights": [
          -0.8298600646424988,
          0.8650789866388663,
          0.19842463813360323,
          0.010480442245493651,
          1.2374186355553696,
          -0.9669904884225209,
          2.49147373292137,
          0.04981557791110253
        ],
        "bias": 0.24277222345052535
      },
      {
        "weights": [
          0.09478803622824544,
          0.38953790468665545,
          0.4340286197743679,
          -0.8380174189418692,
          -1.290032479257588,
          0.8332075806993998,
          -0.5100344202077066,
          -2.254466155511655
        ],
        "bias": -0.028157746936140805
      },
      {
        "weights": [
          -0.0644731115047191,
          0.03935433183648202,
          -1.1066902083032915,
          -0.0881986663171207,
          -1.4556722436679863,
          -1.2682781791149427,
          1.2714474715462833,
          -0.06313260203577752
        ],
        "bias": 0.027388485665617187
      },
      {
        "weights": [
          -1.7202645476657994,
          1.697630576458001,
          -0.5284319133509474,
          0.4374046880871945,
          0.332796000461251,
          -0.822409275963275,
          -1.175057667686963,
          -0.19929479099107614
        ],
        "bias": -0.25668597725616593
      },
      {
        "weights": [
          -0.5733012817997664,
          -1.3893824238661345,
          -0.9079068180046345,
          -0.6118693940455322,
          -1.074266987265208,
          -1.028271765613327,
          -0.698423583106497,
          1.1914471101452648
        ],
        "bias": -0.01506636956116031
      }
    ],
    [
      {
        "weights": [
          1.0495397219493554,
          -0.8322072015520534,
          0.4598101457745583,
          -1.915990986363699,
          0.9696940549322196,
          0.1241475407803496,
          -0.5997456659531137,
          -0.44722574982780844
        ],
        "bias": -0.10563823654597813
      },
      {
        "weights": [
          0.9464258975340502,
          1.4027980624679741,
          -0.4337297240475094,
          1.3522614467247307,
          0.07490176725688465,
          -1.0618556095563254,
          -0.3199112392249462,
          -0.3515073379830106
        ],
        "bias": -0.07517371562782435
      },
      {
        "weights": [
          0.1884967333074384,
          -0.10859359167719071,
          0.00767715135820258,
          -1.7018908899162901,
          0.5384890675833033,
          -0.10861985163891848,
          1.423430777491924,
          -1.4191549682234008
        ],
        "bias": -0.04890876211692435
      },
      {
        "weights": [
          -1.9821996286275692,
          -0.5317299497229337,
          -1.7967472823191741,
          2.594721716654048,
          1.0754152504478967,
          -0.47855308266965985,
          -2.5144577159239634,
          -1.015916168924047
        ],
        "bias": 0.01809787171982972
      },
      {
        "weights": [
          1.2890522510990612,
          -0.6169044150980877,
          0.6813256271086069,
          -0.11387005388918756,
          1.4449005200657115,
          -0.9863038142960338,
          -0.4717047610086509,
          -0.9964562067489475
        ],
        "bias": 0.25906348453772116
      },
      {
        "weights": [
          0.6547695868678969,
          1.017769813999231,
          -0.3374410953140348,
          -0.33179375665633243,
          0.614453731680716,
          -1.3900337427527547,
          -0.2575903984842858,
          0.8134296362070531
        ],
        "bias": 0.08930880996262498
      },
      {
        "weights": [
          -1.7518025131661628,
          -0.9448258637682557,
          -0.2447620945653093,
          1.259418509389816,
          -0.035461171226104905,
          0.29207744403011787,
          0.2766813337743423,
          -0.10548190945995194
        ],
        "bias": -0.052128430809939036
      },
      {
        "weights": [
          0.15855146078824983,
          -0.19424630768086523,
          -1.4515502485579046,
          -0.58259229703668,
          0.03479930096051396,
          0.41272360677902936,
          -0.3447949628656042,
          1.5988200684233216
        ],
        "bias": -0.06019573724897224
      }
    ]
  ],
  "output_layer": [
    {
      "weights": [
        0.19318085408157376,
        -0.6920814127627428,
        0.602406051505697,
        1.684388535694334,
        0.43417502533451385,
        0.6560923564219766,
        -0.21687692679836748,
        0.530311865310168
      ],
      "bias": 0.032755156016185345
    }
  ]
}