{
  "input_layer": [
    {
      "weights": [
        9.05803518185403
      ],
      "bias": -8.819720447787601
    },
    {
      "weights": [
        8.917394740768025
      ],
      "bias": 9.292011041575307
    },
    {
      "weights": [
        5.588416970629807
      ],
      "bias": -5.532828590319702
    },
    {
      "weights": [
        4.624353627385221
      ],
      "bias": -4.573210577989146
    },
    {
      "weights": [
        0.37620161137035235
      ],
      "bias": -2.4911606053085595
    },
    {
      "weights": [
        -4.156469395179679
      ],
      "bias": -2.8610180537707866
    },
    {
      "weights": [
        8.417993547711056
      ],
      "bias": -0.08249849434305366
    },
    {
      "weights": [
        6.119331926998341
      ],
      "bias": -6.013651575177646
    }
  ],
  "hidden_layers": [
    [
      {
        "weights": [
          1.474592019366538,
          -2.156197220883665,
          1.4264218468380745,
          -0.2289198454374091,
          -0.6421321955125597,
          -0.13317986908661159,
          -1.1511072071832515,
          1.5051070314474526
        ],
        "bias": -1.9925565369887852
      },
      {
        "weights": [
          1.3003644171929507,
          2.5344417069606324,
          1.7630111164954436,
          4.240696909169204,
          2.429136985008923,
          -3.713968782465705,
          7.181200982741414,
          1.7839278268848269
        ],
        "bias": -4.1697772247801455
      },
      {
        "weights": [
          1.8208897341571924,
          -3.08474684388696,
          1.8063318310256125,
          2.0443823924724702,
          1.0927286247541697,
          1.6269957263276924,
          1.4155772469713404,
          1.8699348950103618
        ],
        "bias": 0.5890288616799332
      },
      {
        "weights": [
          9.108389301157807,
          -8.727220670333715,
          5.522613596954061,
          1.3625200116705751,
          -0.9534227580385364,
          5.661297511254073,
          -1.2826659526845505,
          6.095216547477502
        ],
        "bias": 0.25520492303677444
      },
      {
        "weights": [
          4.012152893680817,
          -1.9175307873138647,
          2.7095817777919406,
          0.46650721974411213,
          -0.8199514955863993,
          -1.1172087373721504,
          -1.750640275989072,
          3.1669234062336042
        ],
        "bias": -3.86113100571031
      },
      {
        "weights": [
          4.613764248196875,
          -4.515778285071235,
          3.9642907326070165,
          3.9488314303753955,
          1.9939524309152727,
          2.3063597007616963,
          4.95763125098423,
          3.4996246466158643
        ],
        "bias": 0.2689159746882382
      },
      {
        "weights": [
          3.5837496250649896,
          -3.271006337371858,
          2.939436592901771,
          2.760319928342103,
          -1.0459612527060007,
          6.030986210965615,
          -4.107487730495808,
          3.0729501850308787
        ],
        "bias": 1.9354071472550345
      },
      {
        "weights": [
          -0.8283526896336506,
          0.5585355690767052,
          -0.5212067584627421,
          -0.3077724084432455,
          0.7014749028125518,
          -1.0776592042167057,
          0.4814401456495038,
          0.09016866120507866
        ],
        "bias": -0.3800429380163709
      }
    ]
  ],
  "output_layer": [
    {
      "weights": [
        -0.4338249702889046,
        -5.08595194212321,
        1.40004151141943,
        0.8600089239475449,
        -0.5595807768712981,
        7.208074448340208,
        2.3456280500994446,
        -0.1833870009502483
      ],
      "bias": -2.530610737182465
    }
  ]
}