{
  "input_layer": [
    {
      "weights": [
        0.3461510563048471
      ],
      "bias": -1.3047865305949489
    },
    {
      "weights": [
        -0.8605624283858767
      ],
      "bias": -0.9770045023044293
    },
    {
      "weights": [
        -1.0346440989892354
      ],
      "bias": 0.250168447872957
    },
    {
      "weights": [
        0.8690040391634681
      ],
      "bias": 2.876480986555666
    },
    {
      "weights": [
        -1.5484277374161466
      ],
      "bias": -0.2754358254107512
    },
    {
      "weights": [
        -0.8712413662642886
      ],
      "bias": 1.8396334298893002
    },
    {
      "weights": [
        -0.7852977640518838
      ],
      "bias": 0.29541548152282304
    },
    {
      "weights": [
        -0.6742965645043069
      ],
      "bias": -0.3010716306201922
    },
    {
      "weights": [
        0.09524985809887639
      ],
      "bias": 1.6158943714197833
    },
    {
      "weights": [
        -0.37551653012017566
      ],
      "bias": 1.4186048878753805
    },
    {
      "weights": [
        -0.7378471602991704
      ],
      "bias": 0.7822886762774406
    },
    {
      "weights": [
        1.3762709414771483
      ],
      "bias": 0.4236017691299972
    },
    {
      "weights": [
        -1.5912639303810143
      ],
      "bias": -1.2998751409975169
    },
    {
      "weights": [
        -0.21337257124079204
      ],
      "bias": -0.8180578730197289
    },
    {
      "weights": [
        -0.7245912690860882
      ],
      "bias": -0.6204747419283212
    },
    {
      "weights": [
        -0.5722949262210886
      ],
      "bias": 1.0766445743999735
    }
  ],
  "hidden_layers": [
    [
      {
        "weights": [
          -0.21785933948891778,
          -0.6415752681438448,
          -2.499488096191068,
          0.01407432809733987,
          1.2426960267067724,
          0.16432511171336284,
          -1.3017441389370665,
          0.43450529840168783,
          -0.8998033250821532,
          0.43783306811576495,
          -0.4183804275217291,
          -2.0858620758683313,
          -0.31801358911995775,
          0.5005950025276098,
          -1.0392707275517434,
          0.447074863799328
        ],
        "bias": -0.013073147300920443
      },
      {
        "weights": [
          -2.6110046044709136,
          -0.2546472974406102,
          0.9206529312765076,
          1.0518931129724827,
          0.3521097231751234,
          -1.030726817053356,
          1.31053603149304,
          -0.12396700223121503,
          -0.16074984950368895,
          -1.047218859178879,
          1.7788965826903058,
          1.2670714534052523,
          -0.38572515575590777,
          0.755545916146736,
          0.3965174630547079,
          -0.7742156749128412
        ],
        "bias": 0.0861734419868432
      },
      {
        "weights": [
          -0.28699187843474944,
          1.3508014063159237,
          0.14004550491058637,
          -0.5683206056438586,
          -1.162261908398071,
          -0.035855552350372175,
          0.9294398439418885,
          -0.7249290482039678,
          1.074270163840249,
          0.3073953749009482,
          -0.9346629489020307,
          -0.09920036743298608,
          -0.5601273947360474,
          1.4414626788939848,
          1.2172088710315605,
          -0.7310316277560682
        ],
        "bias": -0.4241536309488438
      },
      {
        "weights": [
          -0.5512789779253543,
          -0.47853010741222946,
          0.7909448967250664,
          0.8858860976415617,
          -0.6715413867163391,
          -0.48709273999400376,
          -0.4578134943340356,
          1.058718177389896,
          -0.28971974024566266,
          2.52487839400558,
          0.4044286955708786,
          1.0907723039973831,
          -1.024314161928188,
          1.149494419240175,
          1.8657006889295171,
          -0.0676417720421347
        ],
        "bias": 0.2589430482119534
      },
      {
        "weights": [
          -1.4055929765060866,
          -2.177764738660423,
          -0.2987958217681779,
          -0.4172071664071717,
          1.5279517742301727,
          0.48429712053448487,
          -0.24763615323650823,
          -1.856458226769373,
          2.014069790771969,
          0.055105368388376354,
          -0.9405889968144576,
          -0.4455995954972248,
          -1.2656607712850105,
          -0.035499058916464675,
          -0.8350705927816134,
          1.1567098593620924
        ],
        "bias": 0.5793010818590587
      },
      {
        "weights": [
          0.5716844071375135,
          0.706456585178356,
          0.6732496345382974,
          -1.1453358567719378,
          2.0610828039335027,
          -1.4127376052643292,
          -0.3481345702579635,
          -3.2330652658927597,
          1.4442146434211394,
          0.29712143528102186,
          -0.5756966624890194,
          -0.29288833397039665,
          -1.9080173781870586,
          1.2386599437994688,
          1.1031766496084268,
          0.06447959762799718
        ],
        "bias": -0.06323262035448793
      },
      {
        "weights": [
          -0.13522171558184506,
          1.1079597303694673,
          0.38977432026731396,
          0.75813222911248,
          0.16961336307573366,
          0.9608175792148174,
          -0.2913052837448086,
          -1.3491866268623727,
          -0.13803274682828623,
          -0.9219600284052166,
          0.806446695714611,
          -1.3213298947989154,
          0.24036553104340955,
          -0.8831263175771888,
          -0.5493204688768827,
          0.5346756148327906
        ],
        "bias": 0.17851028061680432
      },
      {
        "weights": [
          0.4226799998231855,
          -1.6834140907216268,
          -0.31785204494287983,
          -0.5881739691519509,
          1.1850134214569303,
          0.7246208464923942,
          -0.21590291994487212,
          0.3001926406470971,
          -0.26623687285453557,
          0.9345356010655534,
          -1.1778407990250368,
          -1.458269130278149,
          -0.4778832461655174,
          0.023458188161060746,
          1.366048226493595,
          1.0539703650817664
        ],
        "bias": -0.3276675393911184
      },
      {
        "weights": [
          0.2720818829736314,
          1.7962134389126903,
          1.0299882792770554,
          -0.4049448302767137,
          -0.3505435418022977,
          0.05504925774775592,
          -0.06570143220989763,
          0.8325774930811555,
          -1.2027961145460373,
          -0.45282516890399765,
          0.8976068967755819,
          1.734924927141801,
          -0.5252174567130768,
          -1.02214059136573,
          -0.24944380933745652,
          0.2747683314058514
        ],
        "bias": -0.07070146177681592
      },
      {
        "weights": [
          0.7104614792148002,
          -0.15297868616734736,
          0.20233783803439417,
          -2.8515535712811455,
          0.2899843130164462,
          -0.721568378662396,
          -2.173094162428455,
          -0.2744832161800639,
          -1.162900266447277,
          -0.8766925754675362,
          -0.7929511932569139,
          0.0497575698440905,
          1.1801304377310382,
          1.1394147968426593,
          0.33292838814160575,
          0.29923284093883407
        ],
        "bias": -0.27931085803689054
      },
      {
        "weights": [
          -0.7339187661879738,
          -0.03923800840797799,
          -1.888656014607723,
          -1.0480415768669382,
          -1.268502268574069,
          1.834694365133699,
          1.5492066538563085,
          0.9052161124289598,
          -0.44854068652317297,
          0.5605579067424981,
          -0.9801019423334872,
          -1.7901355237420813,
          0.2695225647993453,
          -0.2587693397916692,
          -1.551140891379446,
          1.0543259788228363
        ],
        "bias": 0.1228584665874221
      },
      {
        "weights": [
          0.12001393261116497,
          1.1860632420685078,
          -0.019580886744248217,
          0.2630201962265013,
          -0.6008134646047872,
          0.6178401403234323,
          0.45869828424242576,
          -0.4667968659173618,
          0.09773028923698186,
          -0.8252921064803046,
          -0.3843581551250954,
          -0.09937712008049171,
          -0.2960021617577273,
          -0.24572726481221968,
          2.107803809103258,
          -1.1995156162478244
        ],
        "bias": 0.4165467681297847
      },
      {
        "weights": [
          -0.3505923859631363,
          0.7804812823062589,
          0.5965819192011127,
          0.6880654684685378,
          -0.33896421330686455,
          0.10877020319865117,
          -0.5234958332737891,
          -0.541945129274238,
          1.4736842607812044,
          -1.6461820662816273,
          -0.8266446210342919,
          0.5427790754848151,
          -1.2202808355675652,
          -0.6766984315611873,
          0.4619705490206905,
          0.609580034362481
        ],
        "bias": 0.07626426642063874
      },
      {
        "weights": [
          -0.4486270002439631,
          -1.408682162873741,
          1.721126459667618,
          0.2272870859428105,
          -0.8727579334476759,
          0.2807113517126144,
          0.33446264035407886,
          1.949487879531905,
          0.5704035657311916,
          1.4310857330395486,
          1.9024884548640302,
          0.6932800542513231,
          -0.0065929062916182555,
          -0.25935097023834236,
          -1.487423871326457,
          0.20330204122204562
        ],
        "bias": 0.29425668702180163
      },
      {
        "weights": [
          -0.7233538454504751,
          -0.7805382116690168,
          -0.2407653073041995,
          -2.1908316950303144,
          0.6012587754084961,
          -1.6784965379969092,
          0.9140145743477287,
          0.32123302526230607,
          -0.64575189848795,
          -1.7543091328161404,
          0.7265650282611364,
          0.013229220824166917,
          0.4655165358782754,
          -0.1023722301339493,
          -0.10219751233483146,
          -1.262211471201433
        ],
        "bias": -0.5974445280764229
      },
      {
        "weights": [
          -0.725199200049908,
          1.06086168932713,
          -0.5464189209440169,
          0.760248927861418,
          1.840936579312539,
          -0.05922308449672319,
          -1.771452228595012,
          0.947446332280868,
          0.5809972499901972,
          0.16804543108320857,
          -1.1638129867637867,
          -0.3466168303535445,
          -0.11334392738263853,
          -0.6466260944637281,
          -0.7295418600605997,
          -0.5565907129133681
        ],
        "bias": -0.05187437702827167
      }
    ],
    [
      {
        "weights": [
          0.1921100127186767,
          -0.3731000683220334,
          -1.4959509072426707,
          1.5007668292485052,
          1.4175020615850695,
          -1.2580989918047842,
          -0.3154531258987471,
          0.9979373959023492,
          0.267021754020337,
          0.2996450642169757,
          -0.04756666586143907,
          -0.8490019516043447,
          2.654135281904983,
          -0.2700975905543991,
          -0.02192042443542105,
          -0.6013272597149268
        ],
        "bias": 0.12381036443147814
      },
      {
        "weights": [
          0.91817698177591,
          2.4297487699487403,
          -0.4489389581340085,
          -1.5728883259973108,
          0.1581565570146612,
          1.3688513396311746,
          0.6702882463020996,
          0.2239010190250123,
          -1.774184566453181,
          -0.5020245309273232,
          1.863104660869971,
          1.003857926539943,
          -0.8772044022207239,
          2.374646198476081,
          -1.2314013078574226,
          -0.8918207960833977
        ],
        "bias": 0.15796542414801837
      },
      {
        "weights": [
          0.8739349128807379,
          0.06940376834024935,
          0.46874672911324666,
          0.7594847176527506,
          -1.2084220171127258,
          0.6947236504763271,
          -0.8009485734702396,
          -0.5013018824629681,
          1.4689023588870163,
          0.3139483289426163,
          0.8100578035158966,
          -0.07576867268617946,
          0.38030919962226784,
          -1.0876183657676286,
          -0.1790507531913433,
          -0.00896224206141185
        ],
        "bias": 0.0560300787058112
      },
      {
        "weights": [
          -0.026391775879688783,
          0.45221592042993114,
          -0.5272272744051575,
          2.374150037499903,
          -1.2489951513045305,
          1.3190249249438146,
          0.49726939665757375,
          1.1715509625380143,
          -0.18873441826020776,
          1.5941667447256758,
          0.08376865922519118,
          -0.8365737920701902,
          -0.7662930956316465,
          0.8768109368814062,
          0.12624529280436633,
          0.7311735984706458
        ],
        "bias": -0.022886783349371193
      },
      {
        "weights": [
          0.41446899498858836,
          -1.2455375357355416,
          0.4731486913566437,
          -0.619367709847503,
          0.7395372367379689,
          -1.5232922072817034,
          -0.14466994385783896,
          -0.3945659683124711,
          0.6925651870303203,
          0.7817202150671441,
          -0.46711302586206993,
          0.728211640380278,
          -0.7500112741832103,
          0.7880140430727621,
          -0.5209602597928148,
          1.3529603372317018
        ],
        "bias": 0.16733442107927166
      },
      {
        "weights": [
          0.7265846534164899,
          -0.8443568114603622,
          -0.3278397986576851,
          -0.4089013804269098,
          0.09609709921729108,
          0.1859817165276229,
          -0.012919870135808177,
          -0.4146165336729095,
          -1.8469473847343367,
          -2.2109829102008307,
          -0.9805018384894917,
          -0.738069410925676,
          1.2393941411174219,
          0.2363444009677443,
          -0.06409654287142377,
          -0.22497997726700883
        ],
        "bias": -0.005824930712625412
      },
      {
        "weights": [
          -0.0984679106974792,
          -0.7094209844167526,
          -1.5237956568639024,
          0.5685454100868591,
          -0.7882515817927827,
          1.0183978206828241,
          -1.1307852413936956,
          -0.3817469695375254,
          0.5942181632298861,
          0.36701862786796113,
          0.3549572553382694,
          0.8903622721427678,
          -0.9090221643443975,
          0.6297444996362906,
          -0.7227088997460394,
          1.3913832537245312
        ],
        "bias": 0.12265955632771919
      },
      {
        "weights": [
          0.7808973423527774,
          3.388776056480519,
          -0.11582556368786885,
          0.7281871892209464,
          1.2223373866309915,
          -0.15390617735347648,
          0.18123135400341606,
          -1.2301497857678436,
          0.050895923769089,
          -1.6446282839580582,
          -0.3127138159950608,
          -0.9029869335479681,
          0.23107253645990172,
          -0.7559938134665368,
          1.1911777330913527,
          0.6243977365903488
        ],
        "bias": 0.13999465944840836
      },
      {
        "weights": [
          -1.0656753104632692,
          0.34109546768969884,
          -1.4134897164229265,
          1.6836408036296773,
          1.4774089022217654,
          1.4761422450448862,
          -0.24820805351218198,
          -0.8712726684850532,
          0.29342262020622323,
          1.007340746646722,
          0.42111083585448106,
          0.6599114614252048,
          1.3809870397779753,
          -1.1496756170429325,
          0.9175494231216501,
          -0.7450331693254684
        ],
        "bias": -0.00851637087413478
      },
      {
        "weights": [
          -1.922486568744162,
          -2.711931901148056,
          -0.6186566785811594,
          0.659892627674361,
          1.4044511939762816,
          -0.20557933725082786,
          0.7617133138933242,
          1.126524753562986,
          -0.068040079059075,
          0.17098545863168557,
          -1.6666525017020346,
          0.47843194635639813,
          0.18489568533896164,
          0.1515505632625603,
          1.0031184350030524,
          0.056177864887601896
        ],
        "bias": 0.032531724169303486
      },
      {
        "weights": [
          -1.3569689130753948,
          1.5989567624836003,
          -1.086707550274795,
          -0.8410267921947546,
          2.0992868098527406,
          0.6929344426905546,
          -0.10208852892075919,
          1.395443941299979,
          -0.198457336837725,
          0.6969719468995748,
          -0.3630274707373507,
          0.9726991191885965,
          0.47052706756559926,
          -0.23878553755081183,
          -1.3118301466714362,
          1.1546376906846099
        ],
        "bias": -0.035350902482142545
      },
      {
        "weights": [
          1.1256649628683484,
          0.5862410100859838,
          -1.0452929812912315,
          -0.10532174866199386,
          -0.45125006025154296,
          -0.6621340869798457,
          -1.148923475509352,
          0.5592529111543504,
          -0.7759270995218708,
          0.6586209304224859,
          -0.832729654416977,
          0.5798898156802088,
          0.5726771612275067,
          1.6590351674514372,
          -1.2809610508562506,
          -2.096914816744051
        ],
        "bias": 0.04663820509646162
      },
      {
        "weights": [
          0.5247503363666484,
          0.7715999450723047,
          1.7396428485660758,
          -0.43808657213181557,
          -1.8730776699168483,
          -0.14306292935150988,
          0.4650505967371457,
          -0.16784237314217643,
          -1.391244440004266,
          0.7129080144010502,
          -1.4024141665519105,
          0.010671601963453807,
          -1.5620410454266942,
          -0.9074824232130253,
          0.6206197508700262,
          0.4072538558980021
        ],
        "bias": -0.031215372818316805
      },
      {
        "weights": [
          0.8657884236353455,
          0.8372867725044724,
          0.044137034498519946,
          0.6634985464541692,
          -0.2584652438482075,
          -0.4327727558427002,
          1.6649810073900422,
          -0.5290386159113082,
          0.042777721211368164,
          -0.31479664109816596,
          -0.10228091428332095,
          -0.8204166715989094,
          0.2735363215446722,
          -0.5142275916361311,
          0.062191787995882375,
          -0.8954997288448734
        ],
        "bias": 0.07832642464022704
      },
      {
        "weights": [
          -1.5698425112126175,
          0.2377685720299352,
          0.5840930619654114,
          -0.8066420928183611,
          1.0647835597413657,
          0.02759450111744524,
          -0.7844806624831686,
          0.6733068523517226,
          -1.1153039744060642,
          -0.4991346258355685,
          -0.737501380853604,
          1.8665184207710315,
          -1.1691134433810164,
          0.296535352302127,
          -1.3690340453422394,
          -0.19703188517506345
        ],
        "bias": 0.10330891226144778
      },
      {
        "weights": [
          0.7246093443624988,
          0.7586169375937891,
          0.015069350700636443,
          -0.9025405327698369,
          0.16373548796987114,
          -0.7175777139018992,
          -0.8377407687095779,
          0.6705380556988825,
          -0.012375675204820519,
          0.11240470982072562,
          -0.5780081069319802,
          -0.8275754226268973,
          0.4153809827436459,
          0.5314233173640608,
          3.039136889709853,
          -1.1715135147022115
        ],
        "bias": -0.15014189805528946
      }
    ],
    [
      {
        "weights": [
          -0.8644365917291944,
          -0.02222936272625502,
          0.9468138982416047,
          -1.3560866828316753,
          1.143813397422222,
          0.4004490631400095,
          1.4286959207667564,
          1.7853289199692404,
          -1.3623564329349855,
          -0.5466887499816765,
          0.07914820838391688,
          0.40235493207763223,
          0.39100866757213654,
          -0.15463673256346838,
          0.656774273625439,
          -1.2997558576557076
        ],
        "bias": 0.1210792694954673
      },
      {
        "weights": [
          0.8635202332185244,
          1.7885805682113487,
          -0.6666525212259724,
          0.3348768260536253,
          0.168543689636215,
          -2.1040201187917624,
          0.20215552232025696,
          -0.31753957263246274,
          -0.49198013481233144,
          1.1896207341438043,
          -1.1229518539317327,
          0.6906553664002957,
          0.27894906630253474,
          -0.7754291057944275,
          -0.162203966313649,
          0.6566638648903632
        ],
        "bias": 0.0006677153144704734
      },
      {
        "weights": [
          1.0273471730758226,
          1.4646760032568182,
          -0.7177512732105784,
          -1.2002271590691016,
          -0.29611220230903207,
          -0.30587868670072665,
          -1.6786007119010848,
          -1.0891683567537027,
          0.23989215586028742,
          0.5271776120679533,
          -0.1008328777819495,
          1.3024916086941136,
          0.681583663197865,
          1.0684491954765685,
          0.8981906911345708,
          -0.9565390473948814
        ],
        "bias": 0.03472013472695161
      },
      {
        "weights": [
          -0.057116842235622294,
          -1.7894569081702412,
          -1.1472343576277608,
          -1.5352914704088547,
          1.4176119622899286,
          -1.995804697818694,
          -0.5254706669175624,
          -0.17187335819822314,
          -0.27609520936087134,
          0.16526599501092895,
          0.6511638337759422,
          0.9788265604103435,
          1.0366783167701727,
          0.4933871345051522,
          -0.2055268894705334,
          -1.134425831981024
        ],
        "bias": -0.0011454956182863174
      },
      {
        "weights": [
          -1.7633199181480774,
          0.13080679079689966,
          -1.343235822918968,
          -1.131405415571418,
          -0.822296245744045,
          0.4484977072404802,
          -0.22184203696061647,
          -0.5985041796078069,
          -2.019858082954429,
          -1.406177660964405,
          0.5029538726210139,
          1.2334624001245391,
          0.9878421969760592,
          -0.6557915828297156,
          0.901651632912804,
          0.8751747657803745
        ],
        "bias": -0.021571052868697652
      },
      {
        "weights": [
          1.1750457038801003,
          1.392094223458685,
          2.5062356099277774,
          -0.5077948896090189,
          0.05505798035420794,
          -1.353906512708361,
          -1.5669692089917404,
          -0.22601692629685283,
          -0.6411688578192068,
          -0.24371524335950093,
          1.0448101742380547,
          0.5339728717989064,
          -0.26985753536757673,
          -0.8776863352831764,
          -0.9634791599835664,
          -0.7092469591968821
        ],
        "bias": -0.04537128086113999
      },
      {
        "weights": [
          0.6539311394917814,
          0.11666382744019141,
          -0.4150758633039565,
          -0.14075136455555184,
          0.2848768793656544,
          -0.7311614920958093,
          0.2478796943818877,
          -1.4289712632579532,
          -0.8431324121531447,
          -1.8659528625116035,
          -1.0779665092179043,
          -1.1953584380203217,
          -0.259502827505092,
          0.2202004764231043,
          -0.9938655638732374,
          0.035647718069491685
        ],
        "bias": -0.09733057122411837
      },
      {
        "weights": [
          -0.1798682165312249,
          1.2346689816062262,
          -0.36029004438179063,
          -1.3432702576331588,
          0.32219635728994567,
          -0.5602990471684082,
          0.5898981132575467,
          -0.40221393071390793,
          0.5360460337585528,
          -1.0984441837534957,
          0.048786476236800415,
          0.6815974955125988,
          0.31019922992325927,
          1.080729520857411,
          0.5648398655913252,
          1.319291144013293
        ],
        "bias": -0.04613913495239578
      },
      {
        "weights": [
          -1.4009121986676683,
          -1.706804346629175,
          -1.220763752329087,
          -1.5180986323003087,
          -1.160204529801444,
          1.1845668314466504,
          1.9249949276133895,
          0.207635470642784,
          -0.7257518177221638,
          1.5462354267795406,
          -0.5201579345426387,
          -0.7771384369277476,
          -0.9242842912314071,
          0.13624708571722746,
          -0.8748707149708093,
          1.3923034939874668
        ],
        "bias": -0.0342130676865647
      },
      {
        "weights": [
          -0.3067552130877747,
          -0.033199772480742254,
          -1.0778927097655522,
          -0.3996405057698477,
          0.4642530404590655,
          0.017045312493870916,
          0.9008747364399641,
          -1.463695660589309,
          -0.05275298013211048,
          -1.5586549270229844,
          -0.12886170984640424,
          0.33865734802584846,
          -0.7745891775235566,
          1.0366233023389746,
          -0.5195207902681475,
          -0.27476642883555014
        ],
        "bias": -0.04841128661884457
      },
      {
        "weights": [
          -0.17793892255654303,
          1.3099379365103794,
          -0.6524788621509903,
          -1.2304273253212032,
          0.13374710375938256,
          0.4911994269995051,
          1.6705411807130592,
          1.6607111207312166,
          -1.0622437725029357,
          0.4660162258286717,
          -0.765461465274376,
          1.810656323711855,
          -1.2358648984518528,
          -0.027158249416828872,
          -0.3501313566717248,
          -0.028837668771125667
        ],
        "bias": 0.023851171022350834
      },
      {
        "weights": [
          -1.4535753217691672,
          0.02315722251207411,
          1.0661747843394405,
          1.3062724112370017,
          0.9762891281619243,
          1.4141362684249024,
          -0.4243722885932029,
          0.0993563021878094,
          -0.033486835601749726,
          1.4844281219647348,
          -1.2621767021820542,
          0.4121614530793386,
          -1.286755320011786,
          -0.9547977789276405,
          -0.21521714817024332,
          1.2972913428314368
        ],
        "bias": 0.0014084821442972334
      },
      {
        "weights": [
          1.4859607428634178,
          2.4162597155311576,
          0.37240412215244684,
          -1.0711690846078235,
          1.1236411178030326,
          0.0695417871135037,
          1.0731508711997875,
          -0.2781210567374598,
          -0.8613201757427934,
          1.805153028538584,
          -0.12371479404761779,
          0.6079331559078434,
          0.45315972948639477,
          0.30751420150134995,
          0.8316348622174983,
          0.48068650876842217
        ],
        "bias": -0.013890544138241508
      },
      {
        "weights": [
          0.47723165541761897,
          0.5989235688286084,
          -0.07291030255404739,
          -0.4143034425368347,
          -0.9455435921786423,
          0.9551614991648081,
          -1.1255101041719473,
          -0.283833042039206,
          -1.5861182186854401,
          -0.1998999910099878,
          -1.6593406795603962,
          0.4055575954850712,
          -1.5188992687377412,
          -0.44515551637064626,
          -0.9342753932134051,
          -0.8721998513579624
        ],
        "bias": 1.9284249415840005e-05
      },
      {
        "weights": [
          -0.32214170297373745,
          0.7690852178708886,
          0.6671263952801493,
          -1.4793580330023641,
          -1.161286376208836,
          -1.5447609919499974,
          0.1089652562399845,
          1.1831463245829683,
          -0.6517367878192688,
          0.9452614893196596,
          1.706978943270312,
          1.422582305450086,
          -0.9995708750494547,
          1.0058280344334232,
          -0.05652166671484134,
          0.9351169815890409
        ],
        "bias": 0.012206518493303101
      },
      {
        "weights": [
          -0.1279752275921717,
          1.8947983410072207,
          0.5061498853915021,
          -2.270909676246488,
          -0.5906301818654902,
          -0.9110279914698062,
          1.1174004950969647,
          -0.9944555584148118,
          1.024513917302161,
          0.6125883324537712,
          1.0623340756483557,
          0.7469078500002082,
          -2.353751642086611,
          0.3232600361017007,
          -0.17375250838438347,
          0.05219782798604807
        ],
        "bias": 0.021280665595571253
      }
    ]
  ],
  "output_layer": [
    {
      "weights": [
        2.5876123847105803,
        -0.04344461594071699,
        1.8134846587401747,
        -0.20940708017686277,
        -2.6395347153271236,
        -2.3993490076396826,
        0.9863588262868854,
        -0.9804396667905163,
        -1.7886438257870056,
        -1.2853404754355926,
        1.2703935760312477,
        -0.006362714291040034,
        1.1877987669199213,
        0.07865577771511856,
        0.6898928371054548,
        1.0248385387467436
      ],
      "bias": 0.09745338542396992
    }
  ]
}