{
  "input_layer": [
    {
      "weights": [
        6.5821646253469
      ],
      "bias": -0.22570597150068872
    },
    {
      "weights": [
        10.382928502691763
      ],
      "bias": -9.85398531186893
    },
    {
      "weights": [
        5.2108124114073275
      ],
      "bias": 5.352910704068029
    },
    {
      "weights": [
        8.088701278517199
      ],
      "bias": -7.829130484098859
    },
    {
      "weights": [
        5.287487336909044
      ],
      "bias": 5.547523257154559
    },
    {
      "weights": [
        4.7810018369031715
      ],
      "bias": 3.781651002225781
    },
    {
      "weights": [
        7.153018900874985
      ],
      "bias": -0.03533353727109152
    },
    {
      "weights": [
        2.8206519526106275
      ],
      "bias": -3.9196488254140123
    }
  ],
  "hidden_layers": [
    [
      {
        "weights": [
          2.5469619979985976,
          1.416063278742441,
          0.5339774405756096,
          1.870319199015892,
          0.4572230773039343,
          1.455539760792709,
          2.7380589881095263,
          2.0301307009447127
        ],
        "bias": -3.2709015012021205
      },
      {
        "weights": [
          -0.15765860054868477,
          9.196473183355161,
          -1.544416456838426,
          7.167594614997137,
          -1.6838162217662125,
          -0.9440773609902666,
          0.36244190910229135,
          2.562278640745291
        ],
        "bias": -5.197923197380802
      },
      {
        "weights": [
          -0.39518129039673733,
          4.594933583776091,
          -1.353116326967584,
          3.60777315405405,
          -1.3639809655920536,
          -1.4961981724493851,
          -0.09046428714428419,
          0.9198941752658367
        ],
        "bias": -1.7647605119739282
      },
      {
        "weights": [
          1.5506076745630537,
          1.7905020693956963,
          -1.2528902038886012,
          1.6992731466600826,
          -3.475400031293954,
          -0.7724387993204073,
          1.8502578262390625,
          3.098532297227916
        ],
        "bias": 2.601005322724267
      },
      {
        "weights": [
          2.9896294478638032,
          3.769409628010924,
          -0.31843346023254276,
          3.521742059639258,
          -0.3063566674423776,
          1.227294316071612,
          3.1328589982932815,
          2.6040242837445544
        ],
        "bias": -5.496730598032501
      },
      {
        "weights": [
          -0.35066005611977435,
          3.961666265831828,
          -0.618234058472804,
          3.0739413011551737,
          -0.8703490775018338,
          -0.8060635756726213,
          -0.06667419695189782,
          0.37584440267715347
        ],
        "bias": -4.03120758973365
      },
      {
        "weights": [
          -0.4236543646936608,
          0.05674244132467816,
          -4.452520810285102,
          -0.053558290059739624,
          -7.109601093453352,
          -2.3576277646287505,
          -0.6057814421676082,
          -0.08626005251731303
        ],
        "bias": 6.904590047549387
      },
      {
        "weights": [
          0.6433001111699476,
          2.104200987039031,
          -2.0107217284058136,
          1.6312225768286215,
          -2.5364602854239817,
          -0.9092174768271953,
          1.404122211339158,
          1.8940372427723298
        ],
        "bias": 1.5275725637779949
      }
    ]
  ],
  "output_layer": [
    {
      "weights": [
        -9.227143030440796,
        2.2498007879678354,
        0.030842141110497732,
        4.152235337996181,
        5.331259384707199,
        -0.14244985055236092,
        1.9249451675192282,
        0.9218356224209184
      ],
      "bias": 0.9622396093308623
    }
  ]
}